{ "sizes": [ 9, 4, 9 ],
  "layers":
  [ { "0": {},
      "1": {},
      "2": {},
      "3": {},
      "4": {},
      "5": {},
      "6": {},
      "7": {},
      "8": {} },
      { "0":
     { "bias": -5.067638874053955,
       "weights":
        { "0": 31.224769592285156,
          "1": 0.7565432786941528,
          "2": -1.5412110090255737,
          "3": -0.12818855047225952,
          "4": -4.0792717933654785,
          "5": 5.073081016540527,
          "6": -4.537547588348389,
          "7": 1.6252870559692383,
          "8": 3.8933281898498535 } },
    "1":
     { "bias": -2.775428533554077,
       "weights":
        { "0": -2.5399532318115234,
          "1": -6.926595211029053,
          "2": -7.489166259765625,
          "3": 4.302567958831787,
          "4": -6.773212432861328,
          "5": -7.859259128570557,
          "6": 9.225781440734863,
          "7": 5.177562236785889,
          "8": -19.111852645874023 } },
    "2":
     { "bias": 19.735239028930664,
       "weights":
        { "0": 5.507773399353027,
          "1": -1.0906081199645996,
          "2": 0.9987891912460327,
          "3": -31.961050033569336,
          "4": 2.6435470581054688,
          "5": 4.568943500518799,
          "6": -19.119762420654297,
          "7": 0.5213088393211365,
          "8": -1.6695075035095215 } },
    "3":
     { "bias": 13.685792922973633,
       "weights":
        { "0": 0.25368931889533997,
          "1": -2.955498695373535,
          "2": -14.144013404846191,
          "3": 1.9620697498321533,
          "4": -14.542502403259277,
          "5": -0.5818691253662109,
          "6": 0.28939369320869446,
          "7": -1.211488962173462,
          "8": -3.7265512943267822 } } } ],
  "outputLookup": true,
  "inputLookup": false,
  "activation": "sigmoid",
  "trainOpts":
   { "iterations": 2000,
     "errorThresh": 0.005,
     "log": false,
     "logPeriod": 10,
     "learningRate": 0.3,
     "momentum": 0.1,
     "callbackPeriod": 10 } }
