{ "sizes": [ 9, 4, 9 ],
  "layers":
  [ { "0": {},
  "1": {},
  "2": {},
  "3": {},
  "4": {},
  "5": {},
  "6": {},
  "7": {},
  "8": {} },
{ "0":
   { "bias": 18.405447006225586,
     "weights":
      { "0": -15.18443489074707,
        "1": 18.213642120361328,
        "2": 16.024763107299805,
        "3": 3.2066757678985596,
        "4": -4.517506122589111,
        "5": -1.4884436130523682,
        "6": 14.07151985168457,
        "7": 0.5592918992042542,
        "8": -18.35025978088379 } },
  "1":
   { "bias": -10.791740417480469,
     "weights":
      { "0": 45.931392669677734,
        "1": 8.212154388427734,
        "2": -2.1442291736602783,
        "3": 0.6009771823883057,
        "4": -9.128931045532227,
        "5": 10.488807678222656,
        "6": -45.38459777832031,
        "7": 4.979766368865967,
        "8": 1.7683848142623901 } },
  "2":
   { "bias": 3.9625625610351562,
     "weights":
      { "0": -3.7874505519866943,
        "1": -0.42022597789764404,
        "2": -1.7021759748458862,
        "3": 1.064316749572754,
        "4": -1.762028694152832,
        "5": 0.8228408098220825,
        "6": -0.884540855884552,
        "7": -0.44706788659095764,
        "8": 0.9788635969161987 } },
  "3":
   { "bias": 24.083816528320312,
     "weights":
      { "0": -12.583438873291016,
        "1": 0.8921484351158142,
        "2": 8.326773643493652,
        "3": -19.383365631103516,
        "4": 4.4848127365112305,
        "5": 4.084105491638184,
        "6": -17.87225914001465,
        "7": -2.2740018367767334,
        "8": -0.3156159222126007 } } },
{ "botLeft":
   { "bias": -13.494775772094727,
     "weights":
      { "0": 11.78120231628418,
        "1": 41.714698791503906,
        "2": -24.489206314086914,
        "3": -37.51271057128906 } },
  "topLeft":
   { "bias": -26.025197982788086,
     "weights":
      { "0": 5.252016544342041,
        "1": -5.993289947509766,
        "2": 20.267763137817383,
        "3": 4.999420166015625 } },
  "midRight":
   { "bias": -5.5544753074646,
     "weights":
      { "0": -4.093231201171875,
        "1": -3.5233895778656006,
        "2": -4.043419361114502,
        "3": 7.113484859466553 } },
  "botRight":
   { "bias": -19.66047477722168,
     "weights":
      { "0": -45.96002960205078,
        "1": 5.509700298309326,
        "2": -5.34047269821167,
        "3": 16.716304779052734 } },
  "topMid":
   { "bias": -5.539122581481934,
     "weights":
      { "0": 1.1883803606033325,
        "1": 0.5728724598884583,
        "2": -0.7250174880027771,
        "3": 2.429858922958374 } },
  "midLeft":
   { "bias": 16.780046463012695,
     "weights":
      { "0": -4.7007365226745605,
        "1": -9.50912857055664,
        "2": -15.100683212280273,
        "3": -24.1728572845459 } },
  "midMid":
   { "bias": -7.53091287612915,
     "weights":
      { "0": -0.44107839465141296,
        "1": 2.2621781826019287,
        "2": 1.5740318298339844,
        "3": 2.4729673862457275 } },
  "topRight":
   { "bias": -40.03379440307617,
     "weights":
      { "0": -2.348071813583374,
        "1": 2.4750020503997803,
        "2": 23.73971939086914,
        "3": 15.522428512573242 } },
  "botMid":
   { "bias": -4.100164890289307,
     "weights":
      { "0": 0.5975824594497681,
        "1": -0.5001165270805359,
        "2": -0.18711018562316895,
        "3": 0.635743260383606 } } } ],
  "outputLookup": true,
  "inputLookup": false,
  "activation": "sigmoid",
  "trainOpts":
   { "iterations": 2000,
     "errorThresh": 0.005,
     "log": false,
     "logPeriod": 10,
     "learningRate": 0.3,
     "momentum": 0.1,
     "callbackPeriod": 10 } }
