{ "sizes": [ 9, 4, 9 ],
  "layers":
  [ { "0": {},
  "1": {},
  "2": {},
  "3": {},
  "4": {},
  "5": {},
  "6": {},
  "7": {},
  "8": {} },
  { "0":
   { "bias": 15.03758716583252,
     "weights":
      { "0": -24.916419982910156,
        "1": -8.428340911865234,
        "2": -1.4448186159133911,
        "3": 12.432512283325195,
        "4": 27.037317276000977,
        "5": -1.4403023719787598,
        "6": 3.870784282684326,
        "7": -1.4192694425582886,
        "8": 12.548090934753418 } },
  "1":
   { "bias": 6.8549323081970215,
     "weights":
      { "0": 5.146501064300537,
        "1": 24.71088409423828,
        "2": 9.071677207946777,
        "3": 9.835358619689941,
        "4": -1.4036740064620972,
        "5": -0.4047374129295349,
        "6": -0.5603790879249573,
        "7": 3.819178819656372,
        "8": -0.5744338035583496 } },
  "2":
   { "bias": -11.590133666992188,
     "weights":
      { "0": 17.0649471282959,
        "1": 5.201722145080566,
        "2": 7.917720317840576,
        "3": 0.19694580137729645,
        "4": 1.9036856889724731,
        "5": 5.9310994148254395,
        "6": -0.7205640077590942,
        "7": -2.506122589111328,
        "8": 5.9845452308654785 } },
  "3":
   { "bias": 5.174682140350342,
     "weights":
      { "0": -4.18353271484375,
        "1": -2.696593761444092,
        "2": 1.076622486114502,
        "3": -0.5798844695091248,
        "4": -2.733386278152466,
        "5": 2.0036797523498535,
        "6": 0.932104229927063,
        "7": -1.4208691120147705,
        "8": 1.848892331123352 } } },
{ "botLeft":
   { "bias": 6.261900901794434,
     "weights":
      { "0": -7.48162841796875,
        "1": -8.472635269165039,
        "2": -63.50142288208008,
        "3": 2.5856199264526367 } },
  "topMid":
   { "bias": -34.83357238769531,
     "weights":
      { "0": -28.960792541503906,
        "1": 32.79240036010742,
        "2": 22.552114486694336,
        "3": -19.54263687133789 } },
  "topLeft":
   { "bias": -18.25831413269043,
     "weights":
      { "0": 3.7122128009796143,
        "1": 5.733188152313232,
        "2": -34.13580322265625,
        "3": 10.417681694030762 } },
  "topRight":
   { "bias": -1.854994535446167,
     "weights":
      { "0": -1.9353954792022705,
        "1": 0.9089418053627014,
        "2": -0.9415644407272339,
        "3": -0.18823933601379395 } },
  "botRight":
   { "bias": -17.829832077026367,
     "weights":
      { "0": 29.278112411499023,
        "1": -9.165022850036621,
        "2": 14.433114051818848,
        "3": -27.138784408569336 } },
  "midMid":
   { "bias": -13.013429641723633,
     "weights":
      { "0": -1.102959394454956,
        "1": -64.32164001464844,
        "2": 5.147324562072754,
        "3": 9.542906761169434 } },
  "midRight":
   { "bias": 3.274806261062622,
     "weights":
      { "0": -27.22735595703125,
        "1": -3.3035190105438232,
        "2": -0.8043015003204346,
        "3": -6.461670398712158 } },
  "botMid":
   { "bias": -39.763431549072266,
     "weights":
      { "0": -21.185190200805664,
        "1": -5.3858747482299805,
        "2": -2.395169496536255,
        "3": 43.010528564453125 } },
  "midLeft":
   { "bias": -6.438231945037842,
     "weights":
      { "0": 4.362970352172852,
        "1": -25.310266494750977,
        "2": -13.4647216796875,
        "3": 9.990859985351562 } } } ],
  "outputLookup": true,
  "inputLookup": false,
  "activation": "sigmoid",
  "trainOpts":
   { "iterations": 2000,
     "errorThresh": 0.005,
     "log": false,
     "logPeriod": 10,
     "learningRate": 0.3,
     "momentum": 0.1,
     "callbackPeriod": 10 } }
