{ "sizes": [ 9, 4, 9 ],
  "layers":
  [ { "0": {},
  "1": {},
  "2": {},
  "3": {},
  "4": {},
  "5": {},
  "6": {},
  "7": {},
  "8": {} },
  { "0":
     { "bias": -2.3678112030029297,
       "weights":
        { "0": -14.6881742477417,
          "1": -1.6662157773971558,
          "2": -0.6074485778808594,
          "3": 4.034998416900635,
          "4": -10.308873176574707,
          "5": -0.722671627998352,
          "6": 24.62568473815918,
          "7": 2.912200450897217,
          "8": -53.57968521118164 } },
    "1":
     { "bias": 5.577670097351074,
       "weights":
        { "0": -0.19386091828346252,
          "1": 3.565427303314209,
          "2": -6.639555931091309,
          "3": 0.00936440471559763,
          "4": -3.6907947063446045,
          "5": -1.832302212715149,
          "6": -0.734873354434967,
          "7": -0.8372867107391357,
          "8": -5.785117149353027 } },
    "2":
     { "bias": 19.178451538085938,
       "weights":
        { "0": -1.0269496440887451,
          "1": 5.06436824798584,
          "2": 13.486751556396484,
          "3": 7.032607555389404,
          "4": -20.01862144470215,
          "5": 17.862619400024414,
          "6": 1.0682249069213867,
          "7": 0.49643683433532715,
          "8": 15.47249984741211 } },
    "3":
     { "bias": -4.4855194091796875,
       "weights":
        { "0": 10.35403823852539,
          "1": 3.3294219970703125,
          "2": -0.8589267134666443,
          "3": -0.2860962748527527,
          "4": -0.49254095554351807,
          "5": 1.7876150608062744,
          "6": -0.8523156046867371,
          "7": 1.3412299156188965,
          "8": 1.259995937347412 } } }
  { "topLeft":
     { "bias": -14.644954681396484,
       "weights":
        { "0": -11.823456764221191,
          "1": 15.648048400878906,
          "2": 12.962254524230957,
          "3": -45.22092819213867 } },
    "botMid":
     { "bias": -6.842046737670898,
       "weights":
        { "0": 0.033563416451215744,
          "1": -0.9636435508728027,
          "2": 3.4092750549316406,
          "3": 2.0283048152923584 } },
    "botRight":
     { "bias": -2.070518970489502,
       "weights":
        { "0": -39.282657623291016,
          "1": -12.751477241516113,
          "2": -29.376352310180664,
          "3": 32.15384292602539 } },
    "midMid":
     { "bias": -16.56656837463379,
       "weights":
        { "0": 14.708028793334961,
          "1": -24.637224197387695,
          "2": 16.207273483276367,
          "3": 0.3653217852115631 } },
    "botLeft":
     { "bias": -0.8263619542121887,
       "weights":
        { "0": 16.303653717041016,
          "1": -20.627655029296875,
          "2": -16.401857376098633,
          "3": -15.57244873046875 } },
    "topRight":
     { "bias": -24.4918155670166,
       "weights":
        { "0": 4.583288669586182,
          "1": 19.64640235900879,
          "2": -1.9599454402923584,
          "3": 1.672608733177185 } },
    "midRight":
     { "bias": -28.410472869873047,
       "weights":
        { "0": 8.08434772491455,
          "1": -5.774742126464844,
          "2": -9.149694442749023,
          "3": 27.576745986938477 } },
    "topMid":
     { "bias": -41.067710876464844,
       "weights":
        { "0": -18.91609001159668,
          "1": 18.554431915283203,
          "2": 2.107429265975952,
          "3": 20.989410400390625 } },
    "midLeft":
     { "bias": -20.653629302978516,
       "weights":
        { "0": 4.317873001098633,
          "1": 1.4703288078308105,
          "2": 2.4736251831054688,
          "3": 11.624688148498535 } } } ],
  "outputLookup": true,
  "inputLookup": false,
  "activation": "sigmoid",
  "trainOpts":
   { "iterations": 2000,
     "errorThresh": 0.005,
     "log": false,
     "logPeriod": 10,
     "learningRate": 0.3,
     "momentum": 0.1,
     "callbackPeriod": 10 } }
